[[[-0.23753515 -0.16339661 -0.13405472 0.25156569 0.53105414]
[0.03279483 -0.32502872 -0.57849133 -0.54798162 -0.1040678]
[0.22969612 0.08224357 -0.24652292 -0.56875026 -0.42987561]
[0.31309003 0.12705992 0.17489126 0.19244057 -0.3329373]
[0.1125727 0.38171726 0.18117607 0.25871795 0.13982999]]

[[-0.25565842 0.12579837 0.24226415 0.09750409 -0.22271329]
[-0.13013005 0.19546989 0.13632374 0.01262235 -0.34097621]
[0.13310851 0.27159506 0.06072892 -0.00429042 -0.37901542]
[0.08178688 0.11070395 0.10353658 -0.17633781 -0.32855138]
[0.17916882 0.08725069 0.12836185 -0.33372068 -0.22464125]]

[[-0.20241611 -0.17260382 -0.12473435 -0.11233425 -0.13981409]
[-0.20170468 -0.22514154 -0.01924886 -0.03542391 0.02374489]
[0.36438382 0.15444358 -0.11140317 -0.02428724 0.07285601]
[0.04938072 0.2834045 0.28122666 0.22497603 0.08790209]
[0.09498698 -0.11067732 -0.0169476 0.01930854 0.20141697]]

[[-0.13599968 -0.33728334 -0.39490831 -0.40115565 -0.21697012]
[-0.30653796 -0.13263284 -0.03724489 0.14786039 0.30947173]
[-0.01015745 0.08182959 0.29945698 0.32257211 0.20043381]
[0.24596244 0.26903647 -0.02322337 0.15831737 -0.2497758]
[0.0994669 0.09620473 0.0375705 -0.2134036 -0.10580921]]

[[-0.20349286 -0.01392132 0.18044563 0.05525945 0.02485494]
[0.04502584 0.11226534 0.17462084 -0.01473253 -0.01780943]
[-0.0885136 -0.29452088 0.07299914 0.28227621 0.21644694]
[0.01435651 -0.43164247 -0.10131975 0.35921571 0.04337507]
[-0.27620578 -0.31743017 -0.23838584 0.26906052 0.20688511]]

[[-0.05276854 0.03210469 0.13115442 0.25212553 0.02109067]
[0.03875233 0.23226357 0.26704532 0.05220371 0.15726748]
[0.27711818 0.27747539 0.06360619 0.25649285 0.30459109]
[-0.05248843 -0.16862726 -0.20355685 -0.15392344 0.0354152]
[-0.57570672 -0.47948635 -0.37093121 -0.55107194 -0.59845597]]]
